digraph Tree {
node [shape=box, style="filled, rounded", color="black", fontname="helvetica"] ;
edge [fontname="helvetica"] ;
0 [label="tha_normal <= 0.5\ngini = 0.5\nsamples = 100.0%\nvalue = [0.52, 0.48]\nclass = sick", fillcolor="#fdf3ec"] ;
1 [label="mhr <= 145.5\n0.34\n44.6%\n[0.21, 0.79]\nsick", fillcolor="#6fb8ec"] ;
0 -> 1 [labeldistance=2.5, labelangle=45, headlabel="True"] ;
5 [label="0.07\n23.3%\n[0.04, 0.96]\nsick", fillcolor="#40a1e6"] ;
1 -> 5 ;
6 [label="vca <= 0.5\n0.48\n21.2%\n[0.41, 0.59]\nsick", fillcolor="#c4e2f7"] ;
1 -> 6 ;
9 [label="0.47\n11.2%\n[0.63, 0.37]\nsick", fillcolor="#f4cbad"] ;
6 -> 9 ;
10 [label="0.28\n10.0%\n[0.17, 0.83]\nsick", fillcolor="#61b1ea"] ;
6 -> 10 ;
2 [label="vca <= 0.5\n0.35\n55.4%\n[0.77, 0.23]\nsick", fillcolor="#eda673"] ;
0 -> 2 [labeldistance=2.5, labelangle=-45, headlabel="False"] ;
3 [label="rbp <= 157.0\n0.19\n39.2%\n[0.89, 0.11]\nsick", fillcolor="#e89051"] ;
2 -> 3 ;
11 [label="age <= 59.5\n0.14\n37.5%\n[0.92, 0.08]\nsick", fillcolor="#e78c4a"] ;
3 -> 11 ;
15 [label="opk <= 3.55\n0.05\n30.4%\n[0.97, 0.03]\nsick", fillcolor="#e6853f"] ;
11 -> 15 ;
17 [label="0.03\n30.0%\n[0.99, 0.01]\nsick", fillcolor="#e5833c"] ;
15 -> 17 ;
18 [label="0.0\n0.4%\n[0.0, 1.0]\nsick", fillcolor="#399de5"] ;
15 -> 18 ;
16 [label="0.42\n7.1%\n[0.71, 0.29]\nsick", fillcolor="#f0b58b"] ;
11 -> 16 ;
12 [label="0.38\n1.7%\n[0.25, 0.75]\nsick", fillcolor="#7bbeee"] ;
3 -> 12 ;
4 [label="cpt_nonanginal pain <= 0.5\n0.5\n16.2%\n[0.49, 0.51]\nsick", fillcolor="#f5fafe"] ;
2 -> 4 ;
7 [label="sch <= 237.5\n0.39\n9.6%\n[0.74, 0.26]\nsick", fillcolor="#eead7f"] ;
4 -> 7 ;
13 [label="0.49\n3.8%\n[0.44, 0.56]\nsick", fillcolor="#d7ebfa"] ;
7 -> 13 ;
14 [label="0.13\n5.8%\n[0.93, 0.07]\nsick", fillcolor="#e78b48"] ;
7 -> 14 ;
8 [label="0.22\n6.7%\n[0.12, 0.88]\nsick", fillcolor="#55abe9"] ;
4 -> 8 ;
}