digraph Tree {
node [shape=box, style="filled, rounded", color="black", fontname="helvetica"] ;
edge [fontname="helvetica"] ;
0 [label="cpt_nonanginal pain <= 0.5\ngini = 0.5\nsamples = 100.0%\nvalue = [0.52, 0.48]\nclass = 1.0", fillcolor="#fdf3ec"] ;
1 [label="age <= 0.57\n0.35\n52.5%\n[0.77, 0.23]\n1.0", fillcolor="#eda774"] ;
0 -> 1 [labeldistance=2.5, labelangle=45, headlabel="True"] ;
5 [label="mhr <= 0.59\n0.18\n32.9%\n[0.9, 0.1]\n1.0", fillcolor="#e88f4f"] ;
1 -> 5 ;
13 [label="0.49\n5.0%\n[0.58, 0.42]\n1.0", fillcolor="#f8dbc6"] ;
5 -> 13 ;
14 [label="0.09\n27.9%\n[0.96, 0.04]\n1.0", fillcolor="#e68742"] ;
5 -> 14 ;
6 [label="sex_male <= 0.5\n0.49\n19.6%\n[0.55, 0.45]\n1.0", fillcolor="#fae7d9"] ;
1 -> 6 ;
7 [label="0.21\n7.1%\n[0.88, 0.12]\n1.0", fillcolor="#e89253"] ;
6 -> 7 ;
8 [label="0.46\n12.5%\n[0.37, 0.63]\n1.0", fillcolor="#acd6f4"] ;
6 -> 8 ;
2 [label="eia_yes <= 0.5\n0.38\n47.5%\n[0.25, 0.75]\n1.0", fillcolor="#7dbeee"] ;
0 -> 2 [labeldistance=2.5, labelangle=-45, headlabel="False"] ;
3 [label="age <= 0.64\n0.5\n21.7%\n[0.46, 0.54]\n1.0", fillcolor="#e3f1fb"] ;
2 -> 3 ;
9 [label="0.47\n12.9%\n[0.61, 0.39]\n1.0", fillcolor="#f5d1b6"] ;
3 -> 9 ;
10 [label="age <= 0.76\n0.36\n8.8%\n[0.24, 0.76]\n1.0", fillcolor="#77bced"] ;
3 -> 10 ;
11 [label="0.12\n6.2%\n[0.07, 0.93]\n1.0", fillcolor="#47a4e7"] ;
10 -> 11 ;
12 [label="0.44\n2.5%\n[0.67, 0.33]\n1.0", fillcolor="#f2c09c"] ;
10 -> 12 ;
4 [label="mhr <= 0.58\n0.15\n25.8%\n[0.08, 0.92]\n1.0", fillcolor="#4aa6e7"] ;
2 -> 4 ;
15 [label="0.0\n20.0%\n[0.0, 1.0]\n1.0", fillcolor="#399de5"] ;
4 -> 15 ;
16 [label="age <= 0.38\n0.46\n5.8%\n[0.36, 0.64]\n1.0", fillcolor="#a7d3f3"] ;
4 -> 16 ;
17 [label="0.0\n1.2%\n[1.0, 0.0]\n1.0", fillcolor="#e58139"] ;
16 -> 17 ;
18 [label="0.3\n4.6%\n[0.18, 0.82]\n1.0", fillcolor="#65b3eb"] ;
16 -> 18 ;
}